MTP
version = 1.1.0
potential_name = MTP_6
scaling = 3.829745666443118e-03
species_count = 2
potential_tag = 
radial_basis_type = RBChebyshev
	min_dist = 2.202638491219111e+00
	max_dist = 8.000000000000000e+00
	radial_basis_size = 8
	radial_funcs_count = 2
	radial_coeffs
		0-0
			{1.016900925609617e-01, 3.290484944596984e-01, 1.383880785725403e-01, 9.026230840534687e-02, 3.920912836843749e-02, 1.075113858624951e-01, -3.758618441553872e-03, -8.788559729459987e-03}
			{-6.722368571078109e-01, -4.237177480455414e-02, -4.123217189034658e-01, -2.193152378282272e-01, -2.007637069038018e-01, 1.541986548706831e-02, -9.143372978325838e-02, 1.674327324516831e-02}
		0-1
			{1.602405757827670e-01, 5.660696385742690e-01, 3.910765667609059e-01, 3.230330794318823e-01, 2.488515972580367e-01, 1.199261977105147e-01, 9.093526381628772e-02, 5.296509916934779e-02}
			{2.575791524619885e-01, 1.617557889174356e-01, 1.068235842932980e-01, 6.490998513363260e-03, 3.982320622167738e-02, -1.433438719269657e-02, 4.086991896978452e-03, 6.133798098345506e-02}
		1-0
			{-1.280861695798974e-01, -2.752458452018092e-01, -3.618188031040259e-02, -3.333350628052372e-02, -8.210590265843050e-02, -1.166094512748450e-03, -4.101549986797555e-02, -5.192535123409345e-02}
			{1.800943274945940e-01, -1.390233676224673e-01, -3.046851059739760e-02, -1.119368501347690e-01, -8.123235783215733e-02, -5.838545207170812e-02, -5.003213892465436e-02, 1.591134893580305e-02}
		1-1
			{2.293997540071336e-02, -1.813170590327885e-01, 1.331787329244707e-02, -9.560126189234364e-02, -6.261481352808321e-03, -3.831613431145221e-02, 1.055395035769134e-02, -8.217843938966784e-03}
			{-1.204228294573587e-01, 2.255423258438353e-01, -1.255800825956774e-01, 6.822579673878586e-02, -6.596191424713735e-02, -1.150509015514824e-02, -3.470127660119370e-02, -2.559610670639359e-03}
alpha_moments_count = 8
alpha_index_basic_count = 5
alpha_index_basic = {{0, 0, 0, 0}, {0, 1, 0, 0}, {0, 0, 1, 0}, {0, 0, 0, 1}, {1, 0, 0, 0}}
alpha_index_times_count = 5
alpha_index_times = {{0, 0, 1, 5}, {1, 1, 1, 6}, {2, 2, 1, 6}, {3, 3, 1, 6}, {0, 5, 1, 7}}
alpha_scalar_moments = 5
alpha_moment_mapping = {0, 4, 5, 6, 7}
species_coeffs = {-1.090866247256261e+03, -7.110324083204367e+02}
moment_coeffs = {-4.173014312096552e-01, -1.467610026565151e+01, -2.192271997220921e+02, 6.670021872861132e+02, -8.443791880036255e+02}