MTP
version = 1.1.0
potential_name = MTP_6
scaling = 1.143555928406849e-02
species_count = 2
potential_tag = 
radial_basis_type = RBChebyshev
	min_dist = 2.196852066230223e+00
	max_dist = 6.000000000000000e+00
	radial_basis_size = 6
	radial_funcs_count = 2
	radial_coeffs
		0-0
			{-2.491898518431550e-01, -3.730232476801920e-01, -3.016767140148476e-01, -2.040959751030504e-01, -1.839997606445713e-01, -8.006554098297881e-02}
			{1.534088669660341e-01, 2.268461311277096e-01, -1.285117700762199e-01, -6.801641909415011e-04, -1.818152374661580e-01, -3.045520526713201e-02}
		0-1
			{9.685981620401289e-02, 4.225209100987559e-01, 2.600253893161275e-01, 1.650567935897092e-01, 1.642760912627649e-01, 7.108634245386192e-02}
			{1.961085432651500e-01, 5.101538675878877e-01, 3.588729308527582e-01, 1.780159301086290e-01, 1.503496601294767e-01, 7.834709596638192e-02}
		1-0
			{-1.194087910115964e-01, -4.031940106141329e-01, -2.866891508838799e-01, -1.305390673306769e-01, -1.297147114020337e-01, -6.591650340589897e-02}
			{1.713286140044832e-01, 4.339006403309866e-01, 3.299353836907144e-01, 1.570524054393760e-01, 1.130564136345161e-01, 6.960604490558164e-02}
		1-1
			{1.241825017355709e-02, -7.352394111626326e-02, 6.488370706346164e-02, 2.695114523062228e-02, 5.650637328262268e-02, 1.048699643482772e-02}
			{-6.694330467934091e-02, -1.476600090056305e-02, -7.563175402371353e-02, -6.032718965225931e-02, -5.657057418595889e-02, -2.315623437458954e-02}
alpha_moments_count = 8
alpha_index_basic_count = 5
alpha_index_basic = {{0, 0, 0, 0}, {0, 1, 0, 0}, {0, 0, 1, 0}, {0, 0, 0, 1}, {1, 0, 0, 0}}
alpha_index_times_count = 5
alpha_index_times = {{0, 0, 1, 5}, {1, 1, 1, 6}, {2, 2, 1, 6}, {3, 3, 1, 6}, {0, 5, 1, 7}}
alpha_scalar_moments = 5
alpha_moment_mapping = {0, 4, 5, 6, 7}
species_coeffs = {-1.193399137683025e+03, -6.608412102316663e+02}
moment_coeffs = {2.111858009754267e+01, -3.316766749857781e+01, -2.223458938537090e+02, 6.758538320194934e+02, -8.865595337523197e+02}