MTP
version = 1.1.0
potential_name = MTP_6
scaling = 1.522072940709516e-02
species_count = 2
potential_tag = 
radial_basis_type = RBChebyshev
	min_dist = 2.196852066230223e+00
	max_dist = 6.000000000000000e+00
	radial_basis_size = 6
	radial_funcs_count = 2
	radial_coeffs
		0-0
			{4.068125374926335e-01, 6.516268218264941e-01, 2.953648435411707e-01, 2.917805418044578e-01, 1.865870511424556e-01, 1.047443320577720e-01}
			{1.123638154778140e-01, -2.315884412205585e-01, -6.469351216146273e-02, 2.536980735209756e-01, 5.649087603298882e-01, 2.252537197555276e-01}
		0-1
			{1.888425690293874e-02, -1.442750980501182e-01, -8.196502088396979e-02, -2.343621357439967e-02, -4.652886484288142e-02, -3.206466356110916e-02}
			{-1.666756393633502e-01, -3.322180887844947e-01, -3.002431739223511e-01, -6.709267090375348e-02, -5.534727975528215e-02, -1.047883742086587e-01}
		1-0
			{8.626167016542684e-02, 2.837591916299288e-01, 1.920508916184648e-01, 9.064300634703422e-02, 9.411994483101425e-02, 4.449052990752405e-02}
			{-1.607081943657773e-01, -2.975536890423083e-01, -2.953537536174653e-01, -6.283530091027005e-02, -4.433198507884447e-02, -8.366413322719811e-02}
		1-1
			{-4.395791903481128e-02, 1.084606551615140e-02, -8.721098304612729e-02, -5.467947462431098e-02, -5.739120785787473e-02, -1.593215928872285e-02}
			{7.045216162521006e-02, 1.027777953177214e-01, -1.201393138382490e-01, -2.538578639033340e-02, -5.711735316728562e-02, 1.056399444267274e-02}
alpha_moments_count = 8
alpha_index_basic_count = 5
alpha_index_basic = {{0, 0, 0, 0}, {0, 1, 0, 0}, {0, 0, 1, 0}, {0, 0, 0, 1}, {1, 0, 0, 0}}
alpha_index_times_count = 5
alpha_index_times = {{0, 0, 1, 5}, {1, 1, 1, 6}, {2, 2, 1, 6}, {3, 3, 1, 6}, {0, 5, 1, 7}}
alpha_scalar_moments = 5
alpha_moment_mapping = {0, 4, 5, 6, 7}
species_coeffs = {-1.191149229039270e+03, -6.595953300360965e+02}
moment_coeffs = {-6.166551511733648e+01, 9.860998986259442e+00, -1.828296347534940e+02, 5.986787353759270e+02, 7.330186856273617e+02}