MTP
version = 1.1.0
potential_name = MTP_6
scaling = 2.869245863504774e-02
species_count = 2
potential_tag = 
radial_basis_type = RBChebyshev
	min_dist = 2.204171560609563e+00
	max_dist = 6.000000000000000e+00
	radial_basis_size = 6
	radial_funcs_count = 2
	radial_coeffs
		0-0
			{-4.096523405156754e-02, -9.254594481468484e-02, -6.070281698953716e-02, -1.198548765490698e-01, -4.428126135543582e-02, -3.520314878248004e-02}
			{1.987747119201818e-01, 4.082992086000650e-01, 1.649406127074544e-02, -5.379897099143783e-01, -3.323883554804907e-01, -2.380506703873193e-01}
		0-1
			{-4.849226578068557e-03, 3.345312333691306e-03, -4.868400980553446e-02, -4.636762080779130e-02, -1.717271660127841e-02, -3.196657302871820e-03}
			{2.487829404231685e-01, 1.137809707093627e-01, -2.217919403384192e-02, -2.224176896580543e-01, -1.159344594792935e-01, 3.738930553651756e-02}
		1-0
			{2.686118370377102e-01, 5.661733738077457e-01, 4.862456433916746e-01, 4.024075531509632e-01, 2.640700364310187e-01, 7.032252408277574e-02}
			{2.049457166187585e-01, 1.538821889569459e-01, -3.261208149220161e-02, -2.178470386034880e-01, -1.123512743479974e-01, 3.482998954280753e-02}
		1-1
			{-3.236012957324461e-02, 1.170337278109785e-03, -2.156694856120517e-01, -1.695193403477815e-01, -1.389594678498399e-01, -4.784490192160584e-02}
			{-1.142662171922174e-01, -2.610229069689701e-02, 2.102708893264909e-01, 8.072900269550455e-02, 6.865026280273386e-02, -8.038208565840704e-03}
alpha_moments_count = 8
alpha_index_basic_count = 5
alpha_index_basic = {{0, 0, 0, 0}, {0, 1, 0, 0}, {0, 0, 1, 0}, {0, 0, 0, 1}, {1, 0, 0, 0}}
alpha_index_times_count = 5
alpha_index_times = {{0, 0, 1, 5}, {1, 1, 1, 6}, {2, 2, 1, 6}, {3, 3, 1, 6}, {0, 5, 1, 7}}
alpha_scalar_moments = 5
alpha_moment_mapping = {0, 4, 5, 6, 7}
species_coeffs = {-1.204095294264632e+03, -6.549884422789934e+02}
moment_coeffs = {-4.313744428294887e+00, -6.514792347264286e+00, -1.710070104394591e+02, 1.638045276884364e+02, 2.056799244696615e+03}