MTP
version = 1.1.0
potential_name = MTP_6
scaling = 2.869245863504774e-02
species_count = 2
potential_tag = 
radial_basis_type = RBChebyshev
	min_dist = 2.196852066230223e+00
	max_dist = 6.000000000000000e+00
	radial_basis_size = 6
	radial_funcs_count = 2
	radial_coeffs
		0-0
			{1.647125463157053e-01, 1.114429351446217e-01, 1.030267240932366e-02, 1.870653181591109e-01, 1.173817616805866e-01, 7.915153775262300e-02}
			{-3.493246106353639e-01, 2.350729912225488e-01, 2.475280850611795e-01, -2.237225186046476e-01, -4.335065716594421e-01, -2.202928530403987e-01}
		0-1
			{4.629664601415400e-02, 2.036872672754804e-01, 7.897263907950429e-02, 7.794222925523843e-02, 1.078160950220108e-01, 4.293521783292057e-02}
			{3.334011662213764e-01, -3.037236655354859e-02, 1.316870306600949e-01, -1.113712317257848e-01, -1.828908453364394e-01, 2.530657893618509e-02}
		1-0
			{2.032512047544934e-01, 4.742857259981030e-01, 4.663750515906830e-01, 3.951386687069285e-01, 2.443199509487590e-01, 5.796850041667635e-02}
			{3.580619958143896e-01, 1.025120506596955e-01, 2.604528390658459e-01, -2.797915455755860e-02, -9.583242913207443e-02, 3.826653355400584e-02}
		1-1
			{-1.301739554934185e-03, -4.984918818566963e-02, -2.421939508269409e-01, -2.143961688980399e-01, -1.466926266097806e-01, -6.569700600363654e-02}
			{-1.808413594359395e-01, 6.887137981401249e-02, 2.001726378525656e-01, 4.726595004133801e-02, 2.592721557286482e-02, -2.479553060156089e-02}
alpha_moments_count = 8
alpha_index_basic_count = 5
alpha_index_basic = {{0, 0, 0, 0}, {0, 1, 0, 0}, {0, 0, 1, 0}, {0, 0, 0, 1}, {1, 0, 0, 0}}
alpha_index_times_count = 5
alpha_index_times = {{0, 0, 1, 5}, {1, 1, 1, 6}, {2, 2, 1, 6}, {3, 3, 1, 6}, {0, 5, 1, 7}}
alpha_scalar_moments = 5
alpha_moment_mapping = {0, 4, 5, 6, 7}
species_coeffs = {-1.198573043540516e+03, -6.519845185722149e+02}
moment_coeffs = {-9.002939197421584e+01, -4.855910127684687e+00, 6.475915756961489e+02, 1.171828879868011e+02, -1.616176258702238e+03}