MTP
version = 1.1.0
potential_name = MTP_6
scaling = 2.630142041546043e-02
species_count = 2
potential_tag = 
radial_basis_type = RBChebyshev
	min_dist = 2.196852066230223e+00
	max_dist = 6.000000000000000e+00
	radial_basis_size = 6
	radial_funcs_count = 2
	radial_coeffs
		0-0
			{2.433465174249699e-03, 7.682902182685487e-02, 4.342023929076352e-02, -1.547889775130797e-03, 2.322879708492698e-03, 2.065324898656832e-03}
			{5.379703123554306e-01, -1.821923462013376e-01, -2.379349220449495e-01, 1.294192864303699e-01, 2.384942289399030e-01, 7.715430125572004e-02}
		0-1
			{-3.476305656251259e-02, -1.707534023317179e-01, -7.548398255269941e-02, -5.776899584446080e-02, -7.316512381446211e-02, -2.907041227386180e-02}
			{-2.005071354646071e-01, 4.256253523301107e-01, -6.039267309864316e-02, 4.337582331134131e-02, 1.825915340397901e-01, 5.433610720997912e-02}
		1-0
			{-2.673963834756778e-01, -5.657531530403720e-01, -5.006551715290193e-01, -3.971943782471023e-01, -2.415642314471774e-01, -5.992907638029898e-02}
			{-3.102338776930971e-01, 1.351279136510004e-01, -1.795793729176847e-01, 2.142077198036106e-02, 2.141468060816470e-01, 2.322046961324773e-02}
		1-1
			{3.633176887790994e-02, 2.696470404028003e-02, 1.979661831415200e-01, 1.589815565647855e-01, 1.261141913060184e-01, 4.729339846484533e-02}
			{1.842701475315258e-01, 6.557198212532087e-02, 8.768522651986219e-02, 1.457553859276366e-01, 1.112533449580191e-01, 6.958656392629563e-02}
alpha_moments_count = 8
alpha_index_basic_count = 5
alpha_index_basic = {{0, 0, 0, 0}, {0, 1, 0, 0}, {0, 0, 1, 0}, {0, 0, 0, 1}, {1, 0, 0, 0}}
alpha_index_times_count = 5
alpha_index_times = {{0, 0, 1, 5}, {1, 1, 1, 6}, {2, 2, 1, 6}, {3, 3, 1, 6}, {0, 5, 1, 7}}
alpha_scalar_moments = 5
alpha_moment_mapping = {0, 4, 5, 6, 7}
species_coeffs = {-1.203238533323949e+03, -6.545223923603397e+02}
moment_coeffs = {6.844464093134143e+00, 7.900808029182864e+00, 2.188868435913699e+02, 2.032140594321955e+02, 1.760608352535631e+03}