MTP
version = 1.1.0
potential_name = MTP_6
scaling = 2.608405330458886e-02
species_count = 2
potential_tag = 
radial_basis_type = RBChebyshev
	min_dist = 2.196852066230223e+00
	max_dist = 6.000000000000000e+00
	radial_basis_size = 6
	radial_funcs_count = 2
	radial_coeffs
		0-0
			{-2.207887083571524e-01, -5.013172541417639e-01, -4.133519736174597e-01, -2.428410414333031e-01, -1.373677418690649e-01, -5.270916223191407e-02}
			{3.590000612221909e-01, 3.223785124972986e-01, -2.743924635227708e-01, -4.024098880884662e-01, 5.008189269677914e-02, -4.308923666939025e-02}
		0-1
			{1.618972270076427e-01, 4.299247118474418e-01, 2.732295146420539e-01, 1.726697800489108e-01, 1.416226898765061e-01, 5.668170324849202e-02}
			{-2.548835508315765e-01, -8.838098081599006e-03, -1.484220305924540e-01, 2.288972285789898e-01, 1.198835818089160e-01, 2.260168445096326e-02}
		1-0
			{7.368253359307993e-02, 2.389373402629302e-01, 1.641929235181123e-01, 7.259635543971035e-02, 6.893741551220045e-02, 3.073206357931647e-02}
			{-2.201638009979931e-01, 3.224057817674627e-01, 7.633820834646621e-02, 2.104578163756615e-02, 2.563389180111798e-01, -4.126464429107163e-03}
		1-1
			{-4.168941364354348e-02, -6.864725144313267e-03, -6.094435640109425e-02, -3.906571293058363e-02, -4.485768936893703e-02, -1.357769069953511e-02}
			{2.878523177245934e-01, 1.453781214069615e-01, 1.300392898683906e-01, 1.334430402032531e-01, 7.762745314339067e-02, 4.582357930444868e-02}
alpha_moments_count = 8
alpha_index_basic_count = 5
alpha_index_basic = {{0, 0, 0, 0}, {0, 1, 0, 0}, {0, 0, 1, 0}, {0, 0, 0, 1}, {1, 0, 0, 0}}
alpha_index_times_count = 5
alpha_index_times = {{0, 0, 1, 5}, {1, 1, 1, 6}, {2, 2, 1, 6}, {3, 3, 1, 6}, {0, 5, 1, 7}}
alpha_scalar_moments = 5
alpha_moment_mapping = {0, 4, 5, 6, 7}
species_coeffs = {-1.175359941180574e+03, -6.694913792997493e+02}
moment_coeffs = {1.330570248006760e+01, 4.552080955438629e+00, 4.380548177002751e+02, 3.247999119549460e+02, 2.123223837655519e+03}