MTP
version = 1.1.0
potential_name = MTP_6
scaling = 2.869245863504774e-02
species_count = 2
potential_tag = 
radial_basis_type = RBChebyshev
	min_dist = 2.237375728169053e+00
	max_dist = 6.000000000000000e+00
	radial_basis_size = 6
	radial_funcs_count = 2
	radial_coeffs
		0-0
			{1.790383193356472e-01, 2.266936060726909e-01, 1.540635045331911e-01, 2.012351446049776e-01, 1.000402752802441e-01, 6.015448864949181e-02}
			{-9.030455909142834e-03, -4.304505483125211e-01, -2.659386282987329e-02, 4.790385685024558e-01, 4.823275742090481e-01, 3.112587751207454e-01}
		0-1
			{8.093495903995482e-02, 7.496690448347385e-02, 1.017980169481825e-01, 7.894307512544138e-02, 2.548010127533731e-02, 2.653763195359813e-03}
			{-1.495928982034667e-01, -1.167985046270540e-01, -7.773665425252750e-02, 1.888649212603676e-01, 4.102226287414232e-02, -1.016685522808779e-01}
		1-0
			{1.806112008780962e-01, 4.552804197630455e-01, 4.511336936972722e-01, 4.010409542806898e-01, 2.564821404041364e-01, 6.116595764702522e-02}
			{-1.527778874479047e-01, -1.556704916759569e-01, -1.139020103822384e-01, 1.407333205474615e-01, 7.866563611846933e-03, -1.039665506389352e-01}
		1-1
			{1.271999999078114e-01, 1.209158573826721e-01, -1.731295334778590e-01, -2.154743849418931e-01, -1.525308017491983e-01, -7.089591818386494e-02}
			{2.561176305526118e-01, 5.997740406090072e-02, -6.137493422553863e-02, -1.740699661528978e-02, 1.170395885332717e-02, 2.337175111520223e-02}
alpha_moments_count = 8
alpha_index_basic_count = 5
alpha_index_basic = {{0, 0, 0, 0}, {0, 1, 0, 0}, {0, 0, 1, 0}, {0, 0, 0, 1}, {1, 0, 0, 0}}
alpha_index_times_count = 5
alpha_index_times = {{0, 0, 1, 5}, {1, 1, 1, 6}, {2, 2, 1, 6}, {3, 3, 1, 6}, {0, 5, 1, 7}}
alpha_scalar_moments = 5
alpha_moment_mapping = {0, 4, 5, 6, 7}
species_coeffs = {-1.048881342449193e+03, -7.184013867962732e+02}
moment_coeffs = {-1.537683114056944e+02, 4.117600157531930e+00, 7.322550464866371e+02, 8.760469944719860e+01, -1.183914719238878e+03}