MTP
version = 1.1.0
potential_name = MTP_6
scaling = 8.735496675330096e-03
species_count = 2
potential_tag = 
radial_basis_type = RBChebyshev
	min_dist = 2.196852066230223e+00
	max_dist = 6.000000000000000e+00
	radial_basis_size = 6
	radial_funcs_count = 2
	radial_coeffs
		0-0
			{3.586503570623515e-01, 7.336852422906798e-01, 3.111106628239564e-01, 2.977136266534665e-01, 1.485413203838888e-01, 1.906886224015217e-02}
			{-4.416116795554945e-01, 3.878744152273975e-02, -3.735780870658302e-01, 1.702532231260428e-01, -8.970079849036454e-02, -7.898822491606426e-02}
		0-1
			{-6.464285444583459e-02, -1.549384891560701e-01, -7.517604643758055e-02, -1.158942701022363e-01, -4.933944949949289e-02, -9.970846050829986e-03}
			{1.227561417757252e-01, -4.801605589290012e-02, 6.654550581097181e-02, -1.139420009995913e-01, -4.677034764662544e-02, 3.771003744491947e-02}
		1-0
			{1.468564796940477e-01, 4.822111045569649e-03, 1.664721539958945e-01, -1.439286150716707e-02, 3.553412776973192e-02, 2.171186548773375e-02}
			{3.884992906689921e-01, 1.584337584914468e-01, 3.761166776635799e-01, 1.753212199497603e-02, 2.639223341521686e-02, 8.173249453290074e-02}
		1-1
			{-9.533686398314162e-02, -1.028206148195374e-01, -3.192046202553991e-02, -4.251632869759966e-02, -3.401923393609873e-02, -2.310387088723969e-02}
			{-3.505000756896250e-01, -2.835939503344410e-01, -1.496901312489803e-01, -1.153656442811499e-01, -1.174166172945657e-01, -6.548000693255708e-02}
alpha_moments_count = 8
alpha_index_basic_count = 5
alpha_index_basic = {{0, 0, 0, 0}, {0, 1, 0, 0}, {0, 0, 1, 0}, {0, 0, 0, 1}, {1, 0, 0, 0}}
alpha_index_times_count = 5
alpha_index_times = {{0, 0, 1, 5}, {1, 1, 1, 6}, {2, 2, 1, 6}, {3, 3, 1, 6}, {0, 5, 1, 7}}
alpha_scalar_moments = 5
alpha_moment_mapping = {0, 4, 5, 6, 7}
species_coeffs = {-1.192438153675765e+03, -6.603090682061548e+02}
moment_coeffs = {5.307288098259562e+01, -3.318112398463126e+01, 1.050974206978415e+02, -5.853461245357112e+02, -1.596844537606256e+03}