MTP
version = 1.1.0
potential_name = MTP_6
scaling = 1.048259601039612e-02
species_count = 2
potential_tag = 
radial_basis_type = RBChebyshev
	min_dist = 2.196852066230223e+00
	max_dist = 6.000000000000000e+00
	radial_basis_size = 6
	radial_funcs_count = 2
	radial_coeffs
		0-0
			{1.287789316563955e-01, 3.491026680800632e-01, 2.635177904287634e-01, 1.557307423814120e-01, -1.135494805070452e-02, -3.210571285458027e-03}
			{6.725679894445810e-01, 2.365692466363880e-01, -4.430452124571282e-01, -2.681770756338179e-01, -1.407771144844571e-01, 3.847021265463446e-03}
		0-1
			{1.249868967247799e-01, 5.080524373771709e-01, 2.990476659649549e-01, 1.588241420397407e-01, 1.489182737833568e-01, 6.623840075604773e-02}
			{1.034164397099315e-01, -1.055105889282321e-01, 1.122368994832533e-01, -5.476548676581160e-02, -1.133966055821881e-01, 2.013598654021816e-02}
		1-0
			{1.224693540111904e-01, 4.287341469784746e-01, 3.043562721759961e-01, 1.287135655354082e-01, 1.270256369178069e-01, 6.665980918151362e-02}
			{1.220697174346695e-01, -3.667882039307744e-02, 9.396879211964516e-02, -5.550438778435313e-02, -1.379944917914451e-01, -1.017917325315950e-03}
		1-1
			{4.081764992416051e-02, 1.179761101422122e-01, -6.622693977830355e-02, -2.467515816685418e-02, -5.896759841882215e-02, -1.026716252382399e-02}
			{-9.963461137471571e-02, -5.138933756910170e-02, -1.852177245790578e-01, -1.775277801705572e-01, -1.481878120359559e-01, -7.354054697978644e-02}
alpha_moments_count = 8
alpha_index_basic_count = 5
alpha_index_basic = {{0, 0, 0, 0}, {0, 1, 0, 0}, {0, 0, 1, 0}, {0, 0, 0, 1}, {1, 0, 0, 0}}
alpha_index_times_count = 5
alpha_index_times = {{0, 0, 1, 5}, {1, 1, 1, 6}, {2, 2, 1, 6}, {3, 3, 1, 6}, {0, 5, 1, 7}}
alpha_scalar_moments = 5
alpha_moment_mapping = {0, 4, 5, 6, 7}
species_coeffs = {-1.173824569287645e+03, -6.686168231656491e+02}
moment_coeffs = {-3.957441675122429e+00, -9.817993647798206e+00, -2.188385567103296e+02, 6.058082731996222e+02, -1.429067437011066e+03}