MTP
version = 1.1.0
potential_name = MTP_6
scaling = 1.068811729076892e-03
species_count = 2
potential_tag = 
radial_basis_type = RBChebyshev
	min_dist = 2.196852066230223e+00
	max_dist = 6.000000000000000e+00
	radial_basis_size = 6
	radial_funcs_count = 2
	radial_coeffs
		0-0
			{3.940542746083952e-01, 4.597755355275541e-01, 2.314802568614779e-01, 2.600304944449585e-01, 1.144377401603675e-01, 6.583759039124840e-02}
			{2.876976708175741e-01, -2.812610943400140e-02, 9.050685960923655e-02, 5.859695058229015e-01, 1.341287045798316e-01, 1.138830850253573e-01}
		0-1
			{-9.423621442974718e-02, -6.636905524133432e-02, -7.955462171723193e-02, -9.823223636186458e-02, -6.047418347278730e-02, -2.118281945371134e-02}
			{2.579351256138411e-01, 3.442554642613176e-01, 3.039106350702052e-01, -3.403168059645005e-02, -6.285638084553974e-02, 7.958571552806661e-03}
		1-0
			{-3.181549189867372e-01, -3.312622974107743e-01, -3.753427585003707e-01, -2.057594457149010e-01, -4.653913369959756e-02, -1.765055020956640e-02}
			{1.239990650867440e-01, 1.918670315415020e-01, 1.316245228779393e-01, -9.382922682136924e-02, -5.184793950627584e-02, 1.235055941246689e-02}
		1-1
			{1.232823217803461e-01, 1.093014591331526e-01, 9.989974598085499e-02, 1.254018938620087e-01, 9.796827960405359e-02, 4.717963506664764e-02}
			{-2.844890925824436e-01, -1.374693617091133e-01, -1.485912050898623e-01, -1.571693136984954e-01, -1.408854212437400e-01, -6.107686086332226e-02}
alpha_moments_count = 8
alpha_index_basic_count = 5
alpha_index_basic = {{0, 0, 0, 0}, {0, 1, 0, 0}, {0, 0, 1, 0}, {0, 0, 0, 1}, {1, 0, 0, 0}}
alpha_index_times_count = 5
alpha_index_times = {{0, 0, 1, 5}, {1, 1, 1, 6}, {2, 2, 1, 6}, {3, 3, 1, 6}, {0, 5, 1, 7}}
alpha_scalar_moments = 5
alpha_moment_mapping = {0, 4, 5, 6, 7}
species_coeffs = {-1.203833807936422e+03, -6.548462022722377e+02}
moment_coeffs = {2.445371358245091e+02, -2.702164104581424e+02, 1.020237141409547e+05, -2.858519316370703e+04, 1.057869710690256e+05}