MTP
version = 1.1.0
potential_name = MTP_6
scaling = 1.811392590596449e-02
species_count = 2
potential_tag = 
radial_basis_type = RBChebyshev
	min_dist = 2.196852066230223e+00
	max_dist = 6.000000000000000e+00
	radial_basis_size = 6
	radial_funcs_count = 2
	radial_coeffs
		0-0
			{4.961785169880405e-02, 3.968036318694182e-01, 1.785401291390200e-01, 2.189469521387709e-01, 7.502154578595334e-02, 7.309041097596580e-02}
			{3.652631289127354e-01, 1.768269355201592e-01, 1.680326450329511e-01, -4.932679676711751e-01, 7.073483296864874e-02, -1.317158847262612e-01}
		0-1
			{-2.023511871608009e-01, -5.740358305135844e-01, -3.550294855697723e-01, -2.225430474385074e-01, -1.765687518106577e-01, -6.424838066741952e-02}
			{-9.190155742489166e-02, 2.848065920852579e-02, -1.346549468870140e-01, 1.758334514086258e-01, 2.176063276032087e-01, 1.782808033130762e-03}
		1-0
			{8.024745614627564e-02, 3.015329062769746e-01, 2.090691280254512e-01, 8.578653242310492e-02, 9.157347184316149e-02, 4.317977397181687e-02}
			{-9.826244877582638e-02, 1.429847654424065e-01, -1.918626897528784e-02, 1.644317595314982e-01, 1.631072082835322e-01, -1.917729989067119e-02}
		1-1
			{1.710720728450285e-02, 4.401579334131750e-02, -5.675762495624610e-02, -3.458032113477463e-02, -4.915025689444846e-02, -1.473453315797637e-02}
			{2.228625448698711e-01, 8.200231049940007e-02, 3.700599282246423e-01, 2.747218234452104e-01, 2.694283211509755e-01, 9.936948345401489e-02}
alpha_moments_count = 8
alpha_index_basic_count = 5
alpha_index_basic = {{0, 0, 0, 0}, {0, 1, 0, 0}, {0, 0, 1, 0}, {0, 0, 0, 1}, {1, 0, 0, 0}}
alpha_index_times_count = 5
alpha_index_times = {{0, 0, 1, 5}, {1, 1, 1, 6}, {2, 2, 1, 6}, {3, 3, 1, 6}, {0, 5, 1, 7}}
alpha_scalar_moments = 5
alpha_moment_mapping = {0, 4, 5, 6, 7}
species_coeffs = {-1.140937081607697e+03, -6.860783178698880e+02}
moment_coeffs = {7.624844716657623e+00, 6.655966108905933e+00, -1.323674276033397e+02, 3.306575242805307e+02, 1.645829800021698e+03}