MTP
version = 1.1.0
potential_name = MTP_6
scaling = 3.510600194239526e-03
species_count = 2
potential_tag = 
radial_basis_type = RBChebyshev
	min_dist = 2.202638491219111e+00
	max_dist = 8.000000000000000e+00
	radial_basis_size = 8
	radial_funcs_count = 2
	radial_coeffs
		0-0
			{1.139475551980662e-03, 1.508516030553778e-01, 2.092150858443827e-02, 2.099616547773647e-02, 8.506118645996029e-03, 8.277214025548892e-02, -2.105648987459186e-02, -1.159260448065007e-02}
			{6.420512132913201e-01, -1.294541959780907e-02, 3.865734346926664e-01, 1.788609351468118e-01, 1.834629125510058e-01, -1.546712934724762e-02, 7.771115832420092e-02, -3.868156415216999e-02}
		0-1
			{1.726527624031932e-01, 6.075492060017638e-01, 4.432607773074935e-01, 3.967999944587411e-01, 2.963542479228068e-01, 1.397108766188508e-01, 1.020124758550761e-01, 5.470248713922216e-02}
			{-2.076065668277246e-01, 4.789167330971555e-02, 6.685393579068870e-02, 1.164729216566086e-01, 8.471750403080552e-02, 1.090684596378788e-01, 3.554317399406645e-02, -6.049668502352453e-02}
		1-0
			{5.960884323771459e-02, 2.119908488195532e-01, 1.639639025764985e-02, 4.242221736831277e-02, 9.246798941398240e-02, -4.324340981788092e-03, 4.246000544999757e-02, 6.304703429423184e-02}
			{-2.190611577424317e-01, -1.250656097808278e-01, -1.444986732846320e-01, -6.727761711519545e-02, -1.780714949026121e-02, 3.457578914937830e-02, 8.884323245796133e-03, -4.921931467645436e-02}
		1-1
			{-9.868900351680761e-02, 8.097991942506316e-02, -8.318192121107686e-02, 7.342559451961884e-02, -1.763591449920722e-02, 3.300967890437700e-02, -1.554293551282463e-02, 1.023041570324208e-02}
			{1.840619338177864e-01, -2.897372011918383e-01, 2.039354441379907e-01, -1.215974233011444e-01, 8.935881551772067e-02, -9.211639758701923e-03, 4.396589101652165e-02, -7.701476009556360e-03}
alpha_moments_count = 8
alpha_index_basic_count = 5
alpha_index_basic = {{0, 0, 0, 0}, {0, 1, 0, 0}, {0, 0, 1, 0}, {0, 0, 0, 1}, {1, 0, 0, 0}}
alpha_index_times_count = 5
alpha_index_times = {{0, 0, 1, 5}, {1, 1, 1, 6}, {2, 2, 1, 6}, {3, 3, 1, 6}, {0, 5, 1, 7}}
alpha_scalar_moments = 5
alpha_moment_mapping = {0, 4, 5, 6, 7}
species_coeffs = {-1.092138447713379e+03, -7.118616353289418e+02}
moment_coeffs = {-2.634946044935415e+01, 1.440634157430623e+01, -4.141866936826132e+02, 7.473447267933170e+02, -1.217069592954436e+03}