MTP
version = 1.1.0
potential_name = MTP_6
scaling = 1.056995097714942e-02
species_count = 2
potential_tag = 
radial_basis_type = RBChebyshev
	min_dist = 2.196852066230223e+00
	max_dist = 6.000000000000000e+00
	radial_basis_size = 6
	radial_funcs_count = 2
	radial_coeffs
		0-0
			{-2.492585719849803e-01, -1.998121514557851e-01, -6.358358598469153e-02, 1.124366599233578e-01, 5.982819394785370e-02, 5.493164979768365e-02}
			{-1.072049860924889e-01, 5.047703544277303e-01, 4.017329558597506e-01, 4.154037556668794e-01, 2.887191267145485e-01, 1.666931342797134e-01}
		0-1
			{-1.412412463128863e-01, -5.107528965860337e-01, -2.784479544990767e-01, -2.097974342701104e-01, -1.969533552479442e-01, -6.678398032524260e-02}
			{-1.206837671501105e-01, -1.405772754865389e-01, -2.073885543314132e-01, -6.663210767140687e-02, 1.530531939866941e-03, -3.075507066439211e-02}
		1-0
			{-1.218011344410264e-01, -4.419829367253187e-01, -3.381535878082235e-01, -1.313748665552449e-01, -1.104700680710313e-01, -6.620193503985676e-02}
			{-1.236632439382118e-02, -2.236484791093086e-03, 1.109966696686476e-01, -4.792607116589070e-02, -5.752998946539815e-02, 5.883479800016746e-03}
		1-1
			{-8.113839380913142e-02, -2.463742485850666e-01, 5.745656746517416e-03, -3.405606289796400e-02, 4.663860591912049e-02, -4.154991886938650e-03}
			{1.352691571709874e-01, 3.914543433416407e-01, 1.060297885341374e-02, 1.160325009975633e-01, -3.273728249428978e-02, 3.991280147356077e-02}
alpha_moments_count = 8
alpha_index_basic_count = 5
alpha_index_basic = {{0, 0, 0, 0}, {0, 1, 0, 0}, {0, 0, 1, 0}, {0, 0, 0, 1}, {1, 0, 0, 0}}
alpha_index_times_count = 5
alpha_index_times = {{0, 0, 1, 5}, {1, 1, 1, 6}, {2, 2, 1, 6}, {3, 3, 1, 6}, {0, 5, 1, 7}}
alpha_scalar_moments = 5
alpha_moment_mapping = {0, 4, 5, 6, 7}
species_coeffs = {-1.062553450675591e+03, -7.277657077282654e+02}
moment_coeffs = {4.626849234204097e+01, 2.246724148605685e+01, -2.831949470611542e+01, 6.116563262127656e+02, -1.793128414015984e+03}