MTP
version = 1.1.0
potential_name = MTP_6
scaling = 1.992531849656093e-02
species_count = 2
potential_tag = 
radial_basis_type = RBChebyshev
	min_dist = 2.204905354771492e+00
	max_dist = 6.000000000000000e+00
	radial_basis_size = 6
	radial_funcs_count = 2
	radial_coeffs
		0-0
			{2.280811046364650e-03, 3.148533127865152e-01, 1.661585496888088e-01, 1.576394135097545e-01, 4.846129637703808e-02, 4.454546106702426e-02}
			{-2.243633135773039e-01, 1.708319388533870e-01, 1.934438138125332e-01, -2.615428925988205e-01, 2.829376078113878e-01, 2.225647567843625e-02}
		0-1
			{-1.943357007212924e-01, -5.981588435113611e-01, -3.684332000115741e-01, -2.370343288314333e-01, -1.999712109561494e-01, -7.530579935705997e-02}
			{-1.954026291975096e-01, 1.309343096187010e-01, -1.207795110455799e-01, 1.733058924660391e-01, 2.547746785811787e-01, -2.517837848204009e-02}
		1-0
			{-7.124784098138021e-02, -3.319588488989003e-01, -2.487641960966800e-01, -9.577785440602492e-02, -1.009258147952208e-01, -5.041248432935672e-02}
			{-2.994792325817946e-01, 2.705380120854995e-02, -1.360447808674606e-01, 1.061234859925013e-01, 2.316700226595827e-01, 2.241139144385221e-02}
		1-1
			{1.516831411311251e-03, -6.215785196440319e-02, 6.190095519775502e-02, 2.978836321976056e-02, 5.595060854394810e-02, 1.223085290345166e-02}
			{3.812668673670288e-01, 2.915848289515432e-01, 2.370307685050224e-01, 2.642856144821234e-01, 1.670041783172077e-01, 9.970082910268213e-02}
alpha_moments_count = 8
alpha_index_basic_count = 5
alpha_index_basic = {{0, 0, 0, 0}, {0, 1, 0, 0}, {0, 0, 1, 0}, {0, 0, 0, 1}, {1, 0, 0, 0}}
alpha_index_times_count = 5
alpha_index_times = {{0, 0, 1, 5}, {1, 1, 1, 6}, {2, 2, 1, 6}, {3, 3, 1, 6}, {0, 5, 1, 7}}
alpha_scalar_moments = 5
alpha_moment_mapping = {0, 4, 5, 6, 7}
species_coeffs = {-1.176614905231860e+03, -6.702062136106950e+02}
moment_coeffs = {4.574113417192245e+01, 3.848543197624858e+00, -4.762295559178676e+02, 2.072020323441801e+02, 1.912245653270810e+03}