MTP
version = 1.1.0
potential_name = MTP_6
scaling = 9.609046342863107e-03
species_count = 2
potential_tag = 
radial_basis_type = RBChebyshev
	min_dist = 2.196852066230223e+00
	max_dist = 6.000000000000000e+00
	radial_basis_size = 6
	radial_funcs_count = 2
	radial_coeffs
		0-0
			{5.673828209239004e-02, 1.313939689255094e-01, 1.233769901285134e-01, 5.149313557799641e-02, -4.135725118368050e-02, -2.258055814173371e-02}
			{-3.924841378105991e-01, -1.230225663472305e-01, 2.922112166721881e-01, 8.641155279311244e-02, 1.202500413647964e-01, -1.037136636281306e-02}
		0-1
			{1.663813050332046e-01, 6.045777988740039e-01, 3.711269376127277e-01, 2.108606699593064e-01, 1.857912923975995e-01, 7.899945962112200e-02}
			{-2.297298205198686e-01, -1.414700553689389e-01, -2.380323881197937e-01, 2.964239827472910e-02, 6.775849596949846e-02, -4.262156843873257e-02}
		1-0
			{-1.115325088302863e-01, -4.223943061141095e-01, -2.979228155149042e-01, -1.210492319001391e-01, -1.263622296538366e-01, -6.205602380098597e-02}
			{-2.013199575679654e-01, -5.630457716959984e-02, -1.867120881245483e-01, 4.087145558435664e-02, 9.277508195915864e-02, -2.961185997366545e-02}
		1-1
			{5.194908592767241e-02, 1.835138846083848e-03, 1.248793457303450e-01, 6.577825060130894e-02, 7.871538856546667e-02, 1.906074204224842e-02}
			{3.507153064586913e-01, 1.963647189016196e-01, 4.212998016308859e-01, 2.834653532079915e-01, 2.621257660145598e-01, 9.397832468411509e-02}
alpha_moments_count = 8
alpha_index_basic_count = 5
alpha_index_basic = {{0, 0, 0, 0}, {0, 1, 0, 0}, {0, 0, 1, 0}, {0, 0, 0, 1}, {1, 0, 0, 0}}
alpha_index_times_count = 5
alpha_index_times = {{0, 0, 1, 5}, {1, 1, 1, 6}, {2, 2, 1, 6}, {3, 3, 1, 6}, {0, 5, 1, 7}}
alpha_scalar_moments = 5
alpha_moment_mapping = {0, 4, 5, 6, 7}
species_coeffs = {-1.191875906071230e+03, -6.599977252734350e+02}
moment_coeffs = {6.597622103422363e+00, 1.260661149917186e+01, -1.407274986513131e+02, 6.184995960911072e+02, -1.498299284848291e+03}