MTP
version = 1.1.0
potential_name = MTP_6
scaling = 9.797440849871511e-04
species_count = 2
potential_tag = 
radial_basis_type = RBChebyshev
	min_dist = 2.196852066230223e+00
	max_dist = 6.000000000000000e+00
	radial_basis_size = 6
	radial_funcs_count = 2
	radial_coeffs
		0-0
			{-3.959201757239715e-01, -6.905904401070221e-01, -3.402690149243470e-01, -2.877477939012676e-01, -1.444936054717631e-01, -7.767328210705698e-02}
			{1.917749575501497e-01, -8.771357676309136e-02, -1.682357147887487e-01, 1.233062754319533e-01, -3.348420643489813e-01, -9.335600846282031e-02}
		0-1
			{-1.300147451957340e-01, -3.008417919694499e-02, -7.864110589543645e-02, -6.041623044435382e-02, 1.633257304977997e-02, 1.494972486232848e-02}
			{-1.926763420833873e-01, 3.514571339798444e-01, 2.513835244041852e-01, -1.091951715271199e-01, 1.659702106607210e-01, 2.461963833854164e-01}
		1-0
			{-3.786113731765548e-02, -1.964542072526607e-01, -1.085882371594137e-01, -3.126642984404807e-02, -8.152265249177326e-02, -5.581766188690282e-02}
			{-1.796650404508435e-01, 3.308204673377659e-01, 2.489076737204125e-01, -1.031225357916257e-01, 1.531409502689923e-01, 2.310962965132463e-01}
		1-1
			{-7.499131588349131e-02, -2.077362042532129e-01, 3.378759341461872e-03, -1.381547843733965e-02, 3.415275640391747e-02, 2.092758495594631e-04}
			{-1.363694574292900e-01, -1.419523540301885e-01, -7.950552046030902e-02, -2.798322924039173e-01, -1.652598363268470e-01, -1.594061691862601e-01}
alpha_moments_count = 8
alpha_index_basic_count = 5
alpha_index_basic = {{0, 0, 0, 0}, {0, 1, 0, 0}, {0, 0, 1, 0}, {0, 0, 0, 1}, {1, 0, 0, 0}}
alpha_index_times_count = 5
alpha_index_times = {{0, 0, 1, 5}, {1, 1, 1, 6}, {2, 2, 1, 6}, {3, 3, 1, 6}, {0, 5, 1, 7}}
alpha_scalar_moments = 5
alpha_moment_mapping = {0, 4, 5, 6, 7}
species_coeffs = {-1.141446601950855e+03, -6.863847071227126e+02}
moment_coeffs = {1.526061376347850e+02, -4.946285454104574e+01, -1.210350388928616e+04, 1.283589681159585e+05, -1.165887532606556e+05}