MTP
version = 1.1.0
potential_name = MTP_6
scaling = 1.048259601039612e-02
species_count = 2
potential_tag = 
radial_basis_type = RBChebyshev
	min_dist = 2.196852066230223e+00
	max_dist = 6.000000000000000e+00
	radial_basis_size = 6
	radial_funcs_count = 2
	radial_coeffs
		0-0
			{-2.035844083279167e-01, -3.194984720107376e-01, -2.177983405717670e-01, -1.884719405332304e-01, -1.645014342874165e-01, -7.314313989677511e-02}
			{3.926128011928600e-01, 3.470877679205294e-01, 1.056323784848168e-01, 2.226138726281713e-01, -2.400573618805921e-01, -1.963212182774095e-02}
		0-1
			{9.330227302976120e-02, 4.776875073105685e-01, 2.928509586978641e-01, 1.623160065252906e-01, 1.628406642905594e-01, 7.537619819019788e-02}
			{2.979717797254671e-01, -1.198682833722828e-01, 1.894202215222039e-01, 9.584794452354765e-03, -1.035740516010739e-01, -1.567180992801295e-03}
		1-0
			{1.379215564662178e-01, 4.450069710003345e-01, 2.968868844599489e-01, 1.273069352181677e-01, 1.305041559053619e-01, 6.354004029160165e-02}
			{3.540252498835247e-01, 2.363077068581411e-01, 2.702994153818977e-01, 1.689286015374180e-02, -1.777552147225555e-01, 5.801495627813155e-02}
		1-1
			{-1.981672253540218e-03, 8.367476311221900e-02, -7.310891655108706e-02, -3.264484717267678e-02, -6.198021953103192e-02, -1.339927979620631e-02}
			{-2.236081917539881e-01, -2.958079196895004e-01, -5.854133589777546e-02, -1.484680593692281e-01, -2.888841895620633e-02, -5.922256730859438e-02}
alpha_moments_count = 8
alpha_index_basic_count = 5
alpha_index_basic = {{0, 0, 0, 0}, {0, 1, 0, 0}, {0, 0, 1, 0}, {0, 0, 0, 1}, {1, 0, 0, 0}}
alpha_index_times_count = 5
alpha_index_times = {{0, 0, 1, 5}, {1, 1, 1, 6}, {2, 2, 1, 6}, {3, 3, 1, 6}, {0, 5, 1, 7}}
alpha_scalar_moments = 5
alpha_moment_mapping = {0, 4, 5, 6, 7}
species_coeffs = {-1.205064002342065e+03, -6.555153877771481e+02}
moment_coeffs = {-4.938879217043438e+01, -6.659065072280796e+00, -4.820741524302801e+02, 5.937931210267883e+02, -1.460410992404059e+03}