MTP
version = 1.1.0
potential_name = MTP_6
scaling = 4.212720233087433e-03
species_count = 2
potential_tag = 
radial_basis_type = RBChebyshev
	min_dist = 2.202638491219111e+00
	max_dist = 8.000000000000000e+00
	radial_basis_size = 8
	radial_funcs_count = 2
	radial_coeffs
		0-0
			{-4.205518969103981e-02, -2.554168054673289e-01, -6.654628986640011e-02, -7.841170600716031e-02, -1.523488340707279e-02, -1.009593776562236e-01, 1.468572048946655e-02, 7.134362947849760e-03}
			{-5.159519861055106e-01, -7.864365122216905e-03, -3.711050433118954e-01, -1.830439363338795e-01, -1.751459318930181e-01, -2.315912921979648e-02, -8.381202611321059e-02, 3.358345791908496e-02}
		0-1
			{-1.987276517724828e-01, -5.981731729179064e-01, -4.123032090287020e-01, -3.418302422476521e-01, -2.557286105835146e-01, -1.228441980820538e-01, -8.920335145690524e-02, -4.911946465367805e-02}
			{8.412186365607278e-02, -1.477807748749718e-01, -2.857511694037976e-02, -7.832833242481847e-02, -7.961181784184557e-02, -4.507155556477425e-02, -4.038926244074306e-02, 2.342337141247824e-03}
		1-0
			{1.104560129261660e-01, 2.588762210968080e-01, 4.877594065766188e-02, 4.874589495710558e-02, 8.741443004453586e-02, 3.050428551578955e-03, 3.947989424992772e-02, 5.452131472011661e-02}
			{-2.582225215376310e-02, -5.246474723901202e-01, -2.150948717732377e-01, -2.411121379377175e-01, -2.266993864508852e-01, -9.262167828877760e-02, -1.015112722481653e-01, -5.126910236655949e-02}
		1-1
			{-1.691177268399310e-02, 1.667576460385042e-01, -1.342367454722861e-02, 1.008056785445134e-01, 1.204207586596075e-02, 4.293290330129958e-02, -7.026700132786634e-03, 9.677822557605008e-03}
			{-6.046337815335265e-02, -4.938429715459513e-02, -5.247551130104947e-02, -8.327008878719928e-02, -5.755345493670919e-02, -6.776399710409221e-02, -1.109623197369642e-02, -1.524347894118839e-02}
alpha_moments_count = 8
alpha_index_basic_count = 5
alpha_index_basic = {{0, 0, 0, 0}, {0, 1, 0, 0}, {0, 0, 1, 0}, {0, 0, 0, 1}, {1, 0, 0, 0}}
alpha_index_times_count = 5
alpha_index_times = {{0, 0, 1, 5}, {1, 1, 1, 6}, {2, 2, 1, 6}, {3, 3, 1, 6}, {0, 5, 1, 7}}
alpha_scalar_moments = 5
alpha_moment_mapping = {0, 4, 5, 6, 7}
species_coeffs = {-1.090521589117624e+03, -7.108077583168466e+02}
moment_coeffs = {-2.157282499408739e+01, -1.658077636710652e+01, -1.169953751282247e+02, 6.616516479012093e+02, 8.888061520410820e+02}