MTP
version = 1.1.0
potential_name = MTP_6
scaling = 1.268394117257930e-02
species_count = 2
potential_tag = 
radial_basis_type = RBChebyshev
	min_dist = 2.196852066230223e+00
	max_dist = 6.000000000000000e+00
	radial_basis_size = 6
	radial_funcs_count = 2
	radial_coeffs
		0-0
			{4.947448852877724e-01, 6.384387911099837e-01, 2.713975797801935e-01, 1.181583777476143e-01, 1.460011179671936e-01, 2.971543951227203e-02}
			{-1.726828687506768e-01, -1.074407244507174e-02, -3.069261657814461e-02, 2.295682402376602e-01, 3.049778216327109e-02, -1.220774013504046e-01}
		0-1
			{-1.420614504115568e-01, -1.503881070245479e-01, -1.376587001258030e-01, -1.224114965087758e-01, -4.681656931903081e-02, 3.571543704408080e-03}
			{3.668597817744784e-01, 3.573295824167078e-01, 3.197526002859153e-01, 9.964258735141443e-02, -1.401604768052612e-02, 1.343363118555497e-01}
		1-0
			{2.317273659389261e-01, 1.679453691430282e-01, 9.420310126777991e-02, -8.410226768757828e-02, -9.758057125512483e-03, 2.168621924997859e-03}
			{3.950526784622823e-01, 3.611028172873694e-01, 3.118641053500326e-01, 6.967604600821839e-02, -1.541446491097490e-02, 1.230970558442337e-01}
		1-1
			{-1.175090201226858e-01, -1.465677547459772e-01, -5.301846340128695e-02, -1.030563977531078e-01, -9.480794941161293e-02, -5.663732150227046e-02}
			{-2.527221129704207e-01, -1.072404928434974e-01, -1.675971007213870e-01, -1.067582287996780e-02, -1.798315362151293e-02, -6.595716677385813e-03}
alpha_moments_count = 8
alpha_index_basic_count = 5
alpha_index_basic = {{0, 0, 0, 0}, {0, 1, 0, 0}, {0, 0, 1, 0}, {0, 0, 0, 1}, {1, 0, 0, 0}}
alpha_index_times_count = 5
alpha_index_times = {{0, 0, 1, 5}, {1, 1, 1, 6}, {2, 2, 1, 6}, {3, 3, 1, 6}, {0, 5, 1, 7}}
alpha_scalar_moments = 5
alpha_moment_mapping = {0, 4, 5, 6, 7}
species_coeffs = {-1.139304889656004e+03, -6.850968338540642e+02}
moment_coeffs = {-5.119719474899409e+00, -8.560696877721382e+00, -2.522005904287390e+02, -2.013677574335462e+02, 1.909365326089242e+03}