MTP
version = 1.1.0
potential_name = MTP_6
scaling = 3.130086396550663e-02
species_count = 2
potential_tag = 
radial_basis_type = RBChebyshev
	min_dist = 2.219319820361410e+00
	max_dist = 6.000000000000000e+00
	radial_basis_size = 6
	radial_funcs_count = 2
	radial_coeffs
		0-0
			{-9.347011116445327e-02, -3.230755734978452e-01, -2.517585570967693e-01, -1.760799834400310e-01, -8.568196404514805e-02, -3.934218316031367e-02}
			{2.533924845075698e-01, 5.620776221784399e-01, 1.865869489135421e-01, -1.954083532811995e-01, 1.671998018599426e-01, 9.186726803359949e-03}
		0-1
			{2.504705084589902e-01, 5.682345905707246e-01, 3.606997685094117e-01, 2.163746728254764e-01, 1.531134050149224e-01, 5.556351026861889e-02}
			{-1.126666333402735e-01, 7.524617322249171e-02, -6.769458023213951e-03, 1.300256491817003e-01, 1.572550232307917e-01, 2.561365401168222e-04}
		1-0
			{1.251360042396081e-01, 3.140824968819878e-01, 2.231292746942917e-01, 1.146596711134936e-01, 8.600326170770342e-02, 3.254148666300347e-02}
			{8.596637035000547e-03, 3.281887630191616e-01, 1.069598650530238e-01, 2.147118674125129e-01, 2.391579418106067e-01, 1.229240770342370e-02}
		1-1
			{1.677477709590238e-02, 4.543386387655778e-03, -5.596842498646137e-02, -5.416732337890560e-02, -4.586121148901386e-02, -1.904465219807579e-02}
			{3.683544893344164e-01, 2.791807344914672e-01, 1.267450734926631e-01, 6.935294360745992e-02, 3.730058971138487e-02, 1.486167079523749e-02}
alpha_moments_count = 8
alpha_index_basic_count = 5
alpha_index_basic = {{0, 0, 0, 0}, {0, 1, 0, 0}, {0, 0, 1, 0}, {0, 0, 0, 1}, {1, 0, 0, 0}}
alpha_index_times_count = 5
alpha_index_times = {{0, 0, 1, 5}, {1, 1, 1, 6}, {2, 2, 1, 6}, {3, 3, 1, 6}, {0, 5, 1, 7}}
alpha_scalar_moments = 5
alpha_moment_mapping = {0, 4, 5, 6, 7}
species_coeffs = {-1.141647907482174e+03, -6.865057579348324e+02}
moment_coeffs = {-9.366117057451927e+00, 3.407477681054694e+00, 5.239599225663717e+01, 2.684001587284529e+02, -2.055578027254601e+03}