MTP
version = 1.1.0
potential_name = MTP_6
scaling = 1.383702673372288e-02
species_count = 2
potential_tag = 
radial_basis_type = RBChebyshev
	min_dist = 2.196852066230223e+00
	max_dist = 6.000000000000000e+00
	radial_basis_size = 6
	radial_funcs_count = 2
	radial_coeffs
		0-0
			{2.706239794720102e-01, 4.213795379773117e-01, 4.254537624887358e-01, 2.699987402303500e-01, 1.910064899083743e-01, 5.178941685098837e-02}
			{5.368810407485349e-01, 5.799188971064075e-01, -8.824574897976349e-02, 9.403558468505349e-02, -1.003852679323213e-01, 3.001417832277939e-02}
		0-1
			{-1.003410191504556e-01, -4.085160155153256e-01, -2.534596170629687e-01, -1.552836578687085e-01, -1.426008906318519e-01, -5.804428225437461e-02}
			{1.575599698023409e-01, 3.037669341143167e-01, 2.901430310740897e-01, 1.064104791723789e-01, 1.893998570955611e-02, 6.375185903526284e-02}
		1-0
			{-8.199595637031180e-02, -3.016135028392722e-01, -2.067708576508435e-01, -8.337936159711160e-02, -9.460411720722638e-02, -4.754209425619470e-02}
			{9.969736474690212e-02, 2.582819890535994e-01, 1.322393387263208e-01, 9.024074745297517e-02, 6.606203799199037e-02, 1.315276710243135e-02}
		1-1
			{-7.675101354456562e-03, -5.756065559662517e-02, 5.266846840401028e-02, 2.257675863956866e-02, 4.218634130064201e-02, 8.213379436203677e-03}
			{-8.487489493741690e-02, -1.173258794265639e-01, -3.143090101255500e-02, -4.163643524778186e-02, -9.084778569557521e-03, -1.503215345592767e-02}
alpha_moments_count = 8
alpha_index_basic_count = 5
alpha_index_basic = {{0, 0, 0, 0}, {0, 1, 0, 0}, {0, 0, 1, 0}, {0, 0, 0, 1}, {1, 0, 0, 0}}
alpha_index_times_count = 5
alpha_index_times = {{0, 0, 1, 5}, {1, 1, 1, 6}, {2, 2, 1, 6}, {3, 3, 1, 6}, {0, 5, 1, 7}}
alpha_scalar_moments = 5
alpha_moment_mapping = {0, 4, 5, 6, 7}
species_coeffs = {-1.176081016844148e+03, -6.699021078975783e+02}
moment_coeffs = {4.703997978289863e+01, -1.948405979999644e+01, -4.722582802885504e+02, 6.485451157974743e+02, 1.155048084676093e+03}