MTP
version = 1.1.0
potential_name = MTP_6
scaling = 1.660443208046744e-02
species_count = 2
potential_tag = 
radial_basis_type = RBChebyshev
	min_dist = 2.196852066230223e+00
	max_dist = 6.000000000000000e+00
	radial_basis_size = 6
	radial_funcs_count = 2
	radial_coeffs
		0-0
			{-3.740214122828067e-01, -6.183542088872395e-01, -3.723890562092160e-01, -3.222525643849525e-01, -1.942640996468454e-01, -9.148935950773358e-02}
			{3.496794892580294e-01, 4.804247314364158e-01, -1.623671944634809e-01, -1.854298822638086e-01, -3.492441857750614e-01, -9.800677019957467e-02}
		0-1
			{1.350881161523783e-02, 2.181491102550654e-01, 1.318397951128231e-01, 6.253880534727074e-02, 7.008532793308014e-02, 3.492755128667993e-02}
			{8.049602448272254e-02, 3.261382096931084e-01, 2.674081468612453e-01, 1.035033407977488e-01, 5.496336855906316e-02, 6.674466795110970e-02}
		1-0
			{7.250196808146846e-02, 2.470264579777896e-01, 1.617596932278308e-01, 6.996578452811222e-02, 7.791444035036071e-02, 3.727020075107487e-02}
			{5.709129510264922e-02, 3.056982525482924e-01, 2.421950078743762e-01, 9.067478005668456e-02, 5.263704728628522e-02, 6.209659507013653e-02}
		1-1
			{2.426422825630004e-02, 6.781634225970197e-02, -4.321514821576332e-02, -2.283902581420208e-02, -3.823597295419508e-02, -9.051514238723484e-03}
			{-1.292481998127014e-01, -2.516747918834696e-01, 9.213736967623841e-03, -2.836950738485091e-02, 2.767547997373604e-02, -1.147860475038473e-02}
alpha_moments_count = 8
alpha_index_basic_count = 5
alpha_index_basic = {{0, 0, 0, 0}, {0, 1, 0, 0}, {0, 0, 1, 0}, {0, 0, 0, 1}, {1, 0, 0, 0}}
alpha_index_times_count = 5
alpha_index_times = {{0, 0, 1, 5}, {1, 1, 1, 6}, {2, 2, 1, 6}, {3, 3, 1, 6}, {0, 5, 1, 7}}
alpha_scalar_moments = 5
alpha_moment_mapping = {0, 4, 5, 6, 7}
species_coeffs = {-1.204969707184173e+03, -6.554640942965767e+02}
moment_coeffs = {-3.837616002916197e+01, -1.188416919296114e+01, -4.643341210467941e+02, 6.231420821900792e+02, -8.966814801526748e+02}