MTP
version = 1.1.0
potential_name = MTP_6
scaling = 1.372267114088218e-02
species_count = 2
potential_tag = 
radial_basis_type = RBChebyshev
	min_dist = 2.196852066230223e+00
	max_dist = 6.000000000000000e+00
	radial_basis_size = 6
	radial_funcs_count = 2
	radial_coeffs
		0-0
			{-2.417850060303530e-01, -6.019740560133313e-01, -1.221364721471637e-01, -3.309015783765398e-01, -1.677166061852400e-01, -1.643175167620509e-01}
			{2.485330764264943e-01, 1.156134579573549e-01, 1.603382588687112e-01, -1.561727848440767e-01, -2.004480726536039e-01, -1.526555841496240e-01}
		0-1
			{8.035614436774849e-02, 3.323295918053407e-01, 2.050004725947327e-01, 1.040866862156764e-01, 1.009597471914895e-01, 5.148551952166311e-02}
			{2.152923559296601e-01, 5.080607833855018e-01, 3.746656300783499e-01, 1.683257921346423e-01, 1.249020299341755e-01, 8.039597971884842e-02}
		1-0
			{-1.026036460424377e-01, -3.403581780721102e-01, -2.380226424954174e-01, -1.090252437200751e-01, -9.900123826008374e-02, -4.304141802748526e-02}
			{1.719819626903296e-01, 3.945090887664418e-01, 3.000486759622936e-01, 1.316373769603174e-01, 8.936918370257337e-02, 7.070098830275119e-02}
		1-1
			{-1.636133403615478e-02, -4.347809262503117e-02, 5.318343365703188e-02, 5.043003659574801e-02, 5.065295660881455e-02, 1.898215754619373e-02}
			{-3.393899181311816e-02, 1.530085911446703e-02, -5.219536599422164e-02, -5.868959815177709e-02, -4.795196100268455e-02, -2.494786061271068e-02}
alpha_moments_count = 8
alpha_index_basic_count = 5
alpha_index_basic = {{0, 0, 0, 0}, {0, 1, 0, 0}, {0, 0, 1, 0}, {0, 0, 0, 1}, {1, 0, 0, 0}}
alpha_index_times_count = 5
alpha_index_times = {{0, 0, 1, 5}, {1, 1, 1, 6}, {2, 2, 1, 6}, {3, 3, 1, 6}, {0, 5, 1, 7}}
alpha_scalar_moments = 5
alpha_moment_mapping = {0, 4, 5, 6, 7}
species_coeffs = {-1.060054689382167e+03, -7.260542523845409e+02}
moment_coeffs = {2.234588823439432e+01, -2.149852440501180e+01, -3.127276063769514e+02, 6.572493859877302e+02, -1.342245756560161e+03}