MTP
version = 1.1.0
potential_name = MTP_6
scaling = 1.257911521247534e-02
species_count = 2
potential_tag = 
radial_basis_type = RBChebyshev
	min_dist = 2.196852066230223e+00
	max_dist = 6.000000000000000e+00
	radial_basis_size = 6
	radial_funcs_count = 2
	radial_coeffs
		0-0
			{-3.595654748796261e-01, -7.259210565666997e-02, -3.082140946068814e-01, -1.950396674688127e-01, -1.521990531615898e-01, 2.012021747090072e-02}
			{2.255462541123748e-01, 8.278131165139531e-01, 1.742901584148818e-01, 1.552327980815005e-01, 1.219314582251876e-01, 1.298092156726655e-01}
		0-1
			{7.454737141998281e-02, -2.812624462399113e-02, 1.103435403965864e-01, 4.798491583233913e-02, -1.990707545254895e-03, -2.446555869557153e-03}
			{-8.122258898152923e-02, -1.452452069507510e-01, -4.678001549467478e-02, 4.262521196152203e-02, -7.266119181209561e-02, -3.828691053222295e-02}
		1-0
			{-2.861942878485300e-01, -2.498722529851068e-01, -2.743610511586412e-01, -2.302544075142652e-01, -1.121210706081588e-01, -2.403529586849902e-02}
			{-6.379434763005237e-02, -1.999426602752739e-01, -2.352830810008863e-01, -7.949667012488883e-02, 2.037887581755642e-02, -5.006666001690101e-02}
		1-1
			{-1.926551684121068e-01, -4.517399979279840e-01, -3.220589339196673e-01, -2.035897444238680e-01, -1.161234513235923e-01, -4.875475423098573e-02}
			{2.295198165470240e-02, -9.949513460331119e-02, -1.114254474480415e-01, -8.626264646064308e-02, -1.254661892292626e-02, -1.145729956345739e-02}
alpha_moments_count = 8
alpha_index_basic_count = 5
alpha_index_basic = {{0, 0, 0, 0}, {0, 1, 0, 0}, {0, 0, 1, 0}, {0, 0, 0, 1}, {1, 0, 0, 0}}
alpha_index_times_count = 5
alpha_index_times = {{0, 0, 1, 5}, {1, 1, 1, 6}, {2, 2, 1, 6}, {3, 3, 1, 6}, {0, 5, 1, 7}}
alpha_scalar_moments = 5
alpha_moment_mapping = {0, 4, 5, 6, 7}
species_coeffs = {-1.061963263645257e+03, -7.273614759396909e+02}
moment_coeffs = {2.170382318868623e+01, 2.560337073291200e+01, 2.360332377770465e+02, 9.317940199897504e+01, -1.923230770807842e+03}