MTP
version = 1.1.0
potential_name = MTP_6
scaling = 2.391038219587312e-02
species_count = 2
potential_tag = 
radial_basis_type = RBChebyshev
	min_dist = 2.196852066230223e+00
	max_dist = 6.000000000000000e+00
	radial_basis_size = 6
	radial_funcs_count = 2
	radial_coeffs
		0-0
			{-1.315516256213170e-01, -3.274938561296754e-01, -4.003709284898517e-01, -1.383813070499125e-01, -8.536498862665139e-02, 1.168782421291325e-02}
			{3.313368725842715e-02, 4.406325930909256e-01, 7.964553183944841e-02, -1.815494710763782e-01, 3.417840010030250e-03, -3.616789718205241e-03}
		0-1
			{1.928397802721190e-01, 5.269092574955445e-01, 3.229538772149454e-01, 2.076168471255640e-01, 1.682252390398960e-01, 6.254360415136939e-02}
			{-1.701472094506388e-01, -1.428205970062118e-01, -2.235968901709723e-01, -2.344472249637702e-02, 3.886304715100210e-02, -2.246027705413819e-02}
		1-0
			{-9.602488442245673e-02, -3.105950903027243e-01, -2.270992951467124e-01, -1.045329206548530e-01, -9.696254961281485e-02, -4.467371446897907e-02}
			{-2.673127315540653e-01, -5.703506929919474e-01, -4.164517835577948e-01, -1.573437703003216e-01, -7.699086107560958e-02, -7.300197460915181e-02}
		1-1
			{-5.050048416025249e-02, -9.629200084034416e-02, 1.808575864255731e-02, 2.101886261871124e-02, 4.187475008890106e-02, 1.422426119001122e-02}
			{6.887133901285449e-02, -3.898043220730830e-02, 1.321603075265111e-01, 1.251264488008392e-01, 1.240089082725754e-01, 5.042726776722517e-02}
alpha_moments_count = 8
alpha_index_basic_count = 5
alpha_index_basic = {{0, 0, 0, 0}, {0, 1, 0, 0}, {0, 0, 1, 0}, {0, 0, 0, 1}, {1, 0, 0, 0}}
alpha_index_times_count = 5
alpha_index_times = {{0, 0, 1, 5}, {1, 1, 1, 6}, {2, 2, 1, 6}, {3, 3, 1, 6}, {0, 5, 1, 7}}
alpha_scalar_moments = 5
alpha_moment_mapping = {0, 4, 5, 6, 7}
species_coeffs = {-1.203234162295604e+03, -6.545200146639398e+02}
moment_coeffs = {-3.100708250549358e+00, 8.087827299010815e+00, -1.213765798319477e+02, 2.427784903625003e+02, -2.147919124028957e+03}