MTP
version = 1.1.0
potential_name = MTP_6
scaling = 1.509493825497040e-02
species_count = 2
potential_tag = 
radial_basis_type = RBChebyshev
	min_dist = 2.204171560609563e+00
	max_dist = 6.000000000000000e+00
	radial_basis_size = 6
	radial_funcs_count = 2
	radial_coeffs
		0-0
			{6.768440946317929e-02, -1.712063743178766e-02, -1.303870432358024e-01, 1.603129731552442e-02, -7.940036661858644e-03, 3.303161933343519e-02}
			{3.916719600380657e-01, 6.764925003574226e-01, 2.048648279879080e-03, 1.446836062207428e-01, 1.706998724317817e-01, 1.590214948292565e-01}
		0-1
			{1.651874631221779e-01, 5.567516050995639e-01, 3.225097662633782e-01, 2.114144069815797e-01, 1.845763055795370e-01, 6.581748717031580e-02}
			{-3.094344228989646e-02, 1.174620186938286e-01, -1.926309703588956e-01, 5.104504252849446e-02, 5.896390094733659e-02, 1.879288318501991e-02}
		1-0
			{1.346539567725183e-01, 4.534652481104263e-01, 3.398469412744194e-01, 1.486956323021903e-01, 1.428542336119769e-01, 7.520334930912007e-02}
			{-1.686306235782404e-01, 8.038347627366409e-02, -6.664513999037878e-02, 1.372053807151187e-01, 2.156805298957839e-01, -4.223470953937507e-02}
		1-1
			{9.453029552568412e-02, 2.289010664876779e-01, -1.313786839786656e-02, 2.156403237309908e-04, -5.756115154561124e-02, -9.815435588622806e-03}
			{-3.580584595981581e-02, -2.850860637165731e-01, 1.119558538502251e-01, 1.292165261277468e-01, 1.790103899631305e-01, 7.065205101633749e-02}
alpha_moments_count = 8
alpha_index_basic_count = 5
alpha_index_basic = {{0, 0, 0, 0}, {0, 1, 0, 0}, {0, 0, 1, 0}, {0, 0, 0, 1}, {1, 0, 0, 0}}
alpha_index_times_count = 5
alpha_index_times = {{0, 0, 1, 5}, {1, 1, 1, 6}, {2, 2, 1, 6}, {3, 3, 1, 6}, {0, 5, 1, 7}}
alpha_scalar_moments = 5
alpha_moment_mapping = {0, 4, 5, 6, 7}
species_coeffs = {-1.202681800299235e+03, -6.542195478111088e+02}
moment_coeffs = {1.124624475974032e+01, 1.037939620529211e+01, -2.109097367922623e+01, 2.690915165584007e+02, -1.878232246618263e+03}